digraph Tree {
node [shape=box, style="filled, rounded", color="black", fontname="helvetica"] ;
edge [fontname="helvetica"] ;
0 [label="HOUSE <= 600017.0\ngini = 0.5\nsamples = 14000\nvalue = [6917, 7083]\nclass = STAY", fillcolor="#fafdfe"] ;
1 [label="OVERAGE <= 98.5\ngini = 0.49\nsamples = 9270\nvalue = [5389, 3881]\nclass = LEAVE", fillcolor="#f8dcc8"] ;
0 -> 1 [labeldistance=2.5, labelangle=45, headlabel="True"] ;
2 [label="LEFTOVER <= 24.5\ngini = 0.5\nsamples = 6166\nvalue = [2906, 3260]\nclass = STAY", fillcolor="#e9f4fc"] ;
1 -> 2 ;
3 [label="LEFTOVER <= 2.5\ngini = 0.48\nsamples = 4097\nvalue = [1672, 2425]\nclass = STAY", fillcolor="#c2e1f7"] ;
2 -> 3 ;
4 [label="INCOME <= 61891.5\ngini = 0.5\nsamples = 2066\nvalue = [1067, 999]\nclass = LEAVE", fillcolor="#fdf7f2"] ;
3 -> 4 ;
5 [label="gini = 0.49\nsamples = 868\nvalue = [481, 387]\nclass = LEAVE", fillcolor="#fae6d8"] ;
4 -> 5 ;
6 [label="gini = 0.5\nsamples = 1198\nvalue = [586, 612]\nclass = STAY", fillcolor="#f7fbfe"] ;
4 -> 6 ;
7 [label="OVERAGE <= 24.0\ngini = 0.42\nsamples = 2031\nvalue = [605, 1426]\nclass = STAY", fillcolor="#8dc7f0"] ;
3 -> 7 ;
8 [label="gini = 0.23\nsamples = 1081\nvalue = [147, 934]\nclass = STAY", fillcolor="#58ace9"] ;
7 -> 8 ;
9 [label="gini = 0.5\nsamples = 950\nvalue = [458, 492]\nclass = STAY", fillcolor="#f1f8fd"] ;
7 -> 9 ;
10 [label="INCOME <= 152692.5\ngini = 0.48\nsamples = 2069\nvalue = [1234, 835]\nclass = LEAVE", fillcolor="#f7d6bf"] ;
2 -> 10 ;
11 [label="HANDSET_PRICE <= 809.0\ngini = 0.48\nsamples = 1973\nvalue = [1161, 812]\nclass = LEAVE", fillcolor="#f7d9c3"] ;
10 -> 11 ;
12 [label="gini = 0.48\nsamples = 1854\nvalue = [1109, 745]\nclass = LEAVE", fillcolor="#f6d6be"] ;
11 -> 12 ;
13 [label="gini = 0.49\nsamples = 119\nvalue = [52, 67]\nclass = STAY", fillcolor="#d3e9f9"] ;
11 -> 13 ;
14 [label="INCOME <= 155235.5\ngini = 0.36\nsamples = 96\nvalue = [73, 23]\nclass = LEAVE", fillcolor="#eda977"] ;
10 -> 14 ;
15 [label="gini = 0.15\nsamples = 37\nvalue = [34, 3]\nclass = LEAVE", fillcolor="#e78c4a"] ;
14 -> 15 ;
16 [label="gini = 0.45\nsamples = 59\nvalue = [39, 20]\nclass = LEAVE", fillcolor="#f2c29f"] ;
14 -> 16 ;
17 [label="INCOME <= 45829.5\ngini = 0.32\nsamples = 3104\nvalue = [2483, 621]\nclass = LEAVE", fillcolor="#eca16b"] ;
1 -> 17 ;
18 [label="HOUSE <= 191838.5\ngini = 0.36\nsamples = 887\nvalue = [680, 207]\nclass = LEAVE", fillcolor="#eda775"] ;
17 -> 18 ;
19 [label="OVER_15MINS_CALLS_PER_MONTH <= 3.5\ngini = 0.22\nsamples = 124\nvalue = [108, 16]\nclass = LEAVE", fillcolor="#e99456"] ;
18 -> 19 ;
20 [label="gini = 0.41\nsamples = 7\nvalue = [2, 5]\nclass = STAY", fillcolor="#88c4ef"] ;
19 -> 20 ;
21 [label="gini = 0.17\nsamples = 117\nvalue = [106, 11]\nclass = LEAVE", fillcolor="#e88e4e"] ;
19 -> 21 ;
22 [label="INCOME <= 25039.5\ngini = 0.38\nsamples = 763\nvalue = [572, 191]\nclass = LEAVE", fillcolor="#eeab7b"] ;
18 -> 22 ;
23 [label="gini = 0.28\nsamples = 157\nvalue = [130, 27]\nclass = LEAVE", fillcolor="#ea9b62"] ;
22 -> 23 ;
24 [label="gini = 0.39\nsamples = 606\nvalue = [442, 164]\nclass = LEAVE", fillcolor="#efb082"] ;
22 -> 24 ;
25 [label="OVERAGE <= 236.5\ngini = 0.3\nsamples = 2217\nvalue = [1803, 414]\nclass = LEAVE", fillcolor="#eb9e66"] ;
17 -> 25 ;
26 [label="INCOME <= 51786.5\ngini = 0.29\nsamples = 1968\nvalue = [1618, 350]\nclass = LEAVE", fillcolor="#eb9c64"] ;
25 -> 26 ;
27 [label="gini = 0.15\nsamples = 160\nvalue = [147, 13]\nclass = LEAVE", fillcolor="#e78c4b"] ;
26 -> 27 ;
28 [label="gini = 0.3\nsamples = 1808\nvalue = [1471, 337]\nclass = LEAVE", fillcolor="#eb9e66"] ;
26 -> 28 ;
29 [label="HOUSE <= 156708.0\ngini = 0.38\nsamples = 249\nvalue = [185, 64]\nclass = LEAVE", fillcolor="#eead7d"] ;
25 -> 29 ;
30 [label="gini = 0.32\nsamples = 5\nvalue = [1, 4]\nclass = STAY", fillcolor="#6ab6ec"] ;
29 -> 30 ;
31 [label="gini = 0.37\nsamples = 244\nvalue = [184, 60]\nclass = LEAVE", fillcolor="#edaa7a"] ;
29 -> 31 ;
32 [label="INCOME <= 100155.0\ngini = 0.44\nsamples = 4730\nvalue = [1528, 3202]\nclass = STAY", fillcolor="#97ccf1"] ;
0 -> 32 [labeldistance=2.5, labelangle=-45, headlabel="False"] ;
33 [label="LEFTOVER <= 40.5\ngini = 0.31\nsamples = 3158\nvalue = [613, 2545]\nclass = STAY", fillcolor="#69b5eb"] ;
32 -> 33 ;
34 [label="LEFTOVER <= 2.5\ngini = 0.3\nsamples = 2375\nvalue = [429, 1946]\nclass = STAY", fillcolor="#65b3eb"] ;
33 -> 34 ;
35 [label="REPORTED_USAGE_LEVEL_high <= 0.5\ngini = 0.33\nsamples = 1062\nvalue = [217, 845]\nclass = STAY", fillcolor="#6cb6ec"] ;
34 -> 35 ;
36 [label="gini = 0.31\nsamples = 955\nvalue = [184, 771]\nclass = STAY", fillcolor="#68b4eb"] ;
35 -> 36 ;
37 [label="gini = 0.43\nsamples = 107\nvalue = [33, 74]\nclass = STAY", fillcolor="#91c9f1"] ;
35 -> 37 ;
38 [label="OVERAGE <= 10.5\ngini = 0.27\nsamples = 1313\nvalue = [212, 1101]\nclass = STAY", fillcolor="#5fb0ea"] ;
34 -> 38 ;
39 [label="gini = 0.21\nsamples = 427\nvalue = [52, 375]\nclass = STAY", fillcolor="#54abe9"] ;
38 -> 39 ;
40 [label="gini = 0.3\nsamples = 886\nvalue = [160, 726]\nclass = STAY", fillcolor="#65b3eb"] ;
38 -> 40 ;
41 [label="HANDSET_PRICE <= 382.5\ngini = 0.36\nsamples = 783\nvalue = [184, 599]\nclass = STAY", fillcolor="#76bbed"] ;
33 -> 41 ;
42 [label="HOUSE <= 990056.0\ngini = 0.37\nsamples = 712\nvalue = [175, 537]\nclass = STAY", fillcolor="#7abded"] ;
41 -> 42 ;
43 [label="gini = 0.37\nsamples = 698\nvalue = [168, 530]\nclass = STAY", fillcolor="#78bced"] ;
42 -> 43 ;
44 [label="gini = 0.5\nsamples = 14\nvalue = [7, 7]\nclass = LEAVE", fillcolor="#ffffff"] ;
42 -> 44 ;
45 [label="HOUSE <= 901542.0\ngini = 0.22\nsamples = 71\nvalue = [9, 62]\nclass = STAY", fillcolor="#56abe9"] ;
41 -> 45 ;
46 [label="gini = 0.14\nsamples = 53\nvalue = [4, 49]\nclass = STAY", fillcolor="#49a5e7"] ;
45 -> 46 ;
47 [label="gini = 0.4\nsamples = 18\nvalue = [5, 13]\nclass = STAY", fillcolor="#85c3ef"] ;
45 -> 47 ;
48 [label="OVERAGE <= 91.0\ngini = 0.49\nsamples = 1572\nvalue = [915, 657]\nclass = LEAVE", fillcolor="#f8dbc7"] ;
32 -> 48 ;
49 [label="LEFTOVER <= 26.5\ngini = 0.5\nsamples = 1052\nvalue = [496, 556]\nclass = STAY", fillcolor="#eaf4fc"] ;
48 -> 49 ;
50 [label="OVERAGE <= 19.5\ngini = 0.48\nsamples = 689\nvalue = [274, 415]\nclass = STAY", fillcolor="#bcdef6"] ;
49 -> 50 ;
51 [label="gini = 0.43\nsamples = 348\nvalue = [107, 241]\nclass = STAY", fillcolor="#91c9f1"] ;
50 -> 51 ;
52 [label="gini = 0.5\nsamples = 341\nvalue = [167, 174]\nclass = STAY", fillcolor="#f7fbfe"] ;
50 -> 52 ;
53 [label="AVERAGE_CALL_DURATION <= 3.0\ngini = 0.48\nsamples = 363\nvalue = [222, 141]\nclass = LEAVE", fillcolor="#f6d1b7"] ;
49 -> 53 ;
54 [label="gini = 0.48\nsamples = 335\nvalue = [198, 137]\nclass = LEAVE", fillcolor="#f7d8c2"] ;
53 -> 54 ;
55 [label="gini = 0.24\nsamples = 28\nvalue = [24, 4]\nclass = LEAVE", fillcolor="#e9965a"] ;
53 -> 55 ;
56 [label="OVER_15MINS_CALLS_PER_MONTH <= 4.5\ngini = 0.31\nsamples = 520\nvalue = [419, 101]\nclass = LEAVE", fillcolor="#eb9f69"] ;
48 -> 56 ;
57 [label="LEFTOVER <= 20.0\ngini = 0.48\nsamples = 38\nvalue = [23, 15]\nclass = LEAVE", fillcolor="#f6d3ba"] ;
56 -> 57 ;
58 [label="gini = 0.49\nsamples = 19\nvalue = [8, 11]\nclass = STAY", fillcolor="#c9e4f8"] ;
57 -> 58 ;
59 [label="gini = 0.33\nsamples = 19\nvalue = [15, 4]\nclass = LEAVE", fillcolor="#eca36e"] ;
57 -> 59 ;
60 [label="OVERAGE <= 144.0\ngini = 0.29\nsamples = 482\nvalue = [396, 86]\nclass = LEAVE", fillcolor="#eb9c64"] ;
56 -> 60 ;
61 [label="gini = 0.47\nsamples = 21\nvalue = [13, 8]\nclass = LEAVE", fillcolor="#f5cfb3"] ;
60 -> 61 ;
62 [label="gini = 0.28\nsamples = 461\nvalue = [383, 78]\nclass = LEAVE", fillcolor="#ea9b61"] ;
60 -> 62 ;
}